<?xml version="1.0"?>
<opencv_storage>
<cascade>
  <stageType>BOOST</stageType>
  <featureType>LBP</featureType>
  <height>24</height>
  <width>24</width>
  <stageParams>
    <boostType>GAB</boostType>
    <minHitRate>9.9800002574920654e-01</minHitRate>
    <maxFalseAlarm>5.0000000000000000e-01</maxFalseAlarm>
    <weightTrimRate>9.4999998807907104e-01</weightTrimRate>
    <maxDepth>1</maxDepth>
    <maxWeakCount>400</maxWeakCount></stageParams>
  <featureParams>
    <maxCatCount>256</maxCatCount>
    <featSize>1</featSize></featureParams>
  <stageNum>21</stageNum>
  <stages>
    <!-- stage 0 -->
    <_>
      <maxWeakCount>13</maxWeakCount>
      <stageThreshold>-2.5115270614624023e+00</stageThreshold>
      <weakClassifiers>
        <_>
          <internalNodes>
            0 -1 51 -252250432 -252641281 -1572881 -1 -168691727
            -168296449 -1 -1</internalNodes>
          <leafValues>
            -8.5077124834060669e-01 1.9483315944671631e-01</leafValues></_>
        <_>
          <internalNodes>
            0 -1 35 -17301822 -1062016414 -85000712 -534588678
            -176823280 1886713968 -36307442 -1</internalNodes>
          <leafValues>
            -6.1082643270492554e-01 2.5557926297187805e-01</leafValues></_>
        <_>
          <internalNodes>
            0 -1 438 -2097217 -2097153 799780363 -1366315089 -607146229
            -4456449 235866891 800042943</internalNodes>
          <leafValues>
            -4.3114465475082397e-01 4.0749505162239075e-01</leafValues></_>
        <_>
          <internalNodes>
            0 -1 1275 -1342177481 -1360265281 -76 -1360069642 -32939
            -33554433 -2748 -319356940</internalNodes>
          <leafValues>
            -3.6283925175666809e-01 4.0146499872207642e-01</leafValues></_>
        <_>
          <internalNodes>
            0 -1 891 -318869643 -1359446017 -16842753 -1090979842
            -33587339 -131201 -65548 -285675916</internalNodes>
          <leafValues>
            -3.5237839818000793e-01 3.6510473489761353e-01</leafValues></_>
        <_>
          <internalNodes>
            0 -1 20 -268439633 182910927 -3146 -352387089 -268502145
            1174405087 -134219803 -134217729</internalNodes>
          <leafValues>
            -3.2695263624191284e-01 3.5043659806251526e-01</leafValues></_>
        <_>
          <internalNodes>
            0 -1 559 1711255331 931659583 -1560566107 -134217753
            1174358015 2145353695 -2066 -1</internalNodes>
          <leafValues>
            -2.5636008381843567e-01 4.2143249511718750e-01</leafValues></_>
        <_>
          <internalNodes>
            0 -1 487 -1363185881 -1363738698 -65676 -286331210
            -1082163387 -16777225 -134322892 -50932620</internalNodes>
          <leafValues>
            -3.5290086269378662e-01 2.9103499650955200e-01</leafValues></_>
        <_>
          <internalNodes>
            0 -1 764 -286263678 -991363226 -286867968 1843658730
            -191382304 -790841408 -227543040 -284164341</internalNodes>
          <leafValues>
            -3.9065310359001160e-01 2.5202536582946777e-01</leafValues></_>
        <_>
          <internalNodes>
            0 -1 1129 218049301 -1895923873 -1342193729 -352419841
            1073700437 -1368391809 -34128843 -17105036</internalNodes>
          <leafValues>
            -3.3061087131500244e-01 2.7811691164970398e-01</leafValues></_>
        <_>
          <internalNodes>
            0 -1 418 -16823521 -1359020161 -587268129 -353832965
            -18907299 -8437889 -134285836 -32440482</internalNodes>
          <leafValues>
            -2.7531042695045471e-01 2.9781797528266907e-01</leafValues></_>
        <_>
          <internalNodes>
            0 -1 1323 -1342177281 -269492361 -67108869 -319885338
            -1346502763 -268435969 -689049244 -452993564</internalNodes>
          <leafValues>
            -2.2310127317905426e-01 3.5982584953308105e-01</leafValues></_>
        <_>
          <internalNodes>
            0 -1 720 -1934750187 -1498890272 2147380223 -1100677596
            -1802379 -16777729 -1359086108 -122628236</internalNodes>
          <leafValues>
            -3.1256717443466187e-01 2.3182623088359833e-01</leafValues></_></weakClassifiers></_>
    <!-- stage 1 -->
    <_>
      <maxWeakCount>21</maxWeakCount>
      <stageThreshold>-2.4824063777923584e+00</stageThreshold>
      <weakClassifiers>
        <_>
          <internalNodes>
            0 -1 450 -21569 -21697 -21829 -24005 -872435777 -16385
            -335566149 -21569</internalNodes>
          <leafValues>
            -7.0096266269683838e-01 3.7787055969238281e-01</leafValues></_>
        <_>
          <internalNodes>
            0 -1 225 -185075776 -789383178 -100795043 -572522529
            -176688688 -235675657 -67108865 -1</internalNodes>
          <leafValues>
            -5.4921060800552368e-01 3.1677010655403137e-01</leafValues></_>
        <_>
          <internalNodes>
            0 -1 28 -1 -67108865 -2031672790 791653935 -1 -5 1342115599
            1879043967</internalNodes>
          <leafValues>
            -3.3818137645721436e-01 3.8295888900756836e-01</leafValues></_>
        <_>
          <internalNodes>
            0 -1 186 -17104898 -100466946 2129328890 -1576993026
            -468395004 -1939546300 -84477736 -119013377</internalNodes>
          <leafValues>
            -3.7432190775871277e-01 2.9651141166687012e-01</leafValues></_>
        <_>
          <internalNodes>
            0 -1 395 -285212865 -1368490121 -16779273 -353435658
            -8426123 -8388737 -58755484 -294194060</internalNodes>
          <leafValues>
            -3.2238000631332397e-01 3.0397540330886841e-01</leafValues></_>
        <_>
          <internalNodes>
            0 -1 1226 -268472569 -402948225 -16814113 -222560257
            2139061585 2138832767 -67110028 -137</internalNodes>
          <leafValues>
            -2.7383524179458618e-01 3.2894939184188843e-01</leafValues></_>
        <_>
          <internalNodes>
            0 -1 1067 -1493237963 -1363345506 -33554435 -1090846732
            -1073906187 -301989891 -8204 -285279068</internalNodes>
          <leafValues>
            -2.7338668704032898e-01 3.1460747122764587e-01</leafValues></_>
        <_>
          <internalNodes>
            0 -1 167 -98042302 -264191294 -858718676 -79955333
            1947596288 -245960460 -301536167 -70256913</internalNodes>
          <leafValues>
            -2.8751593828201294e-01 2.9008489847183228e-01</leafValues></_>
        <_>
          <internalNodes>
            0 -1 1147 251285015 108191103 -352325963 -1561526300
            1879002205 -163969 -16843020 -352651552</internalNodes>
          <leafValues>
            -3.2526195049285889e-01 2.3473758995532990e-01</leafValues></_>
        <_>
          <internalNodes>
            0 -1 644 -798886714 1363148804 15802577 858096445 4515212
            480344018 820454831 1001072267</internalNodes>
          <leafValues>
            -2.8514516353607178e-01 2.4573732912540436e-01</leafValues></_>
        <_>
          <internalNodes>
            0 -1 341 784215863 783220479 -536903689 -1360598849
            803170175 -268435459 -268438667 -285278731</internalNodes>
          <leafValues>
            -2.8531786799430847e-01 2.5200372934341431e-01</leafValues></_>
        <_>
          <internalNodes>
            0 -1 677 -270008833 -1901932562 -1342249312 -1356792158
            -310390827 -895025155 -671616512 -651692381</internalNodes>
          <leafValues>
            -2.8253382444381714e-01 2.6012560725212097e-01</leafValues></_>
        <_>
          <internalNodes>
            0 -1 1081 -1902509003 -1360072713 -16845057 -1157726883
            1702841941 -268961793 -1368107792 -1997513228</internalNodes>
          <leafValues>
            -3.4171891212463379e-01 1.9058243930339813e-01</leafValues></_>
        <_>
          <internalNodes>
            0 -1 337 -41089 -1082130633 -16777217 -218431489 -10659
            -8345 -12291 -93127042</internalNodes>
          <leafValues>
            -1.7279557883739471e-01 3.5361960530281067e-01</leafValues></_>
        <_>
          <internalNodes>
            0 -1 1319 -268435589 -1478295554 2080374645 -4259938
            -268748939 -822157569 -134220316 -52430896</internalNodes>
          <leafValues>
            -1.9565144181251526e-01 3.0931821465492249e-01</leafValues></_>
        <_>
          <internalNodes>
            0 -1 104 -281022549 573370282 -285248266 -356457490
            1202708287 268435447 -939792907 1155530239</internalNodes>
          <leafValues>
            -3.1710073351860046e-01 1.8291726708412170e-01</leafValues></_>
        <_>
          <internalNodes>
            0 -1 460 1378140850 1367688516 742439957 1564847198
            286325238 -82512140 862190047 1576927230</internalNodes>
          <leafValues>
            -2.7915626764297485e-01 2.0523983240127563e-01</leafValues></_>
        <_>
          <internalNodes>
            0 -1 892 645811507 -1078298117 -41960193 -1074074754
            -2005107275 -1 -238404 -1074233760</internalNodes>
          <leafValues>
            -2.4061003327369690e-01 2.3584789037704468e-01</leafValues></_>
        <_>
          <internalNodes>
            0 -1 661 1656744739 41746323 -223189198 -235864283
            1172267845 108394325 -573179936 -168466833</internalNodes>
          <leafValues>
            -2.9547345638275146e-01 1.9082400202751160e-01</leafValues></_>
        <_>
          <internalNodes>
            0 -1 331 -41943045 -830799898 933220219 1101786863 -36700346
            -724192413 1121963275 1298621771</internalNodes>
          <leafValues>
            -2.1556130051612854e-01 2.4633969366550446e-01</leafValues></_>
        <_>
          <internalNodes>
            0 -1 513 -288381149 749141886 -1619038209 -286609674
            264994423 796917619 2113529461 -89456681</internalNodes>
          <leafValues>
            -2.7955988049507141e-01 1.8759687244892120e-01</leafValues></_></weakClassifiers></_>
    <!-- stage 2 -->
    <_>
      <maxWeakCount>32</maxWeakCount>
      <stageThreshold>-2.4497151374816895e+00</stageThreshold>
      <weakClassifiers>
        <_>
          <internalNodes>
            0 -1 436 -1025 -20481 -1070405 -21825 -16449 -1 -21829
            -21845</internalNodes>
          <leafValues>
            -6.6114532947540283e-01 4.4585439562797546e-01</leafValues></_>
        <_>
          <internalNodes>
            0 -1 56 -185141536 -251723786 -1179649 -1 -168299532
            -184549441 -1 -1</internalNodes>
          <leafValues>
            -5.3333246707916260e-01 2.7507674694061279e-01</leafValues></_>
        <_>
          <internalNodes>
            0 -1 921 -3146000 -850857986 -282550976 -842599448
            -997997408 -990596106 -101191440 -1</internalNodes>
          <leafValues>
            -3.5720294713973999e-01 2.7567452192306519e-01</leafValues></_>
        <_>
          <internalNodes>
            0 -1 984 -1073741825 -1073807361 -513 -65550 -1610645507 -1
            -536879876 -1359458832</internalNodes>
          <leafValues>
            -2.4139223992824554e-01 3.5277858376502991e-01</leafValues></_>
        <_>
          <internalNodes>
            0 -1 616 -134894918 893103747 997702581 856664714 1300968331
            -1140887585 375849642 319758986</internalNodes>
          <leafValues>
            -3.7532189488410950e-01 2.2152318060398102e-01</leafValues></_>
        <_>
          <internalNodes>
            0 -1 60 -353442294 -265093494 -288698808 -1564286358
            -11143404 -262818441 -297406716 -536871457</internalNodes>
          <leafValues>
            -3.4507492184638977e-01 2.4220778048038483e-01</leafValues></_>
        <_>
          <internalNodes>
            0 -1 992 -6385 2147483583 -1049618 -67109889 2012708677
            2139094911 -169 -1</internalNodes>
          <leafValues>
            -2.6848185062408447e-01 2.8533107042312622e-01</leafValues></_>
        <_>
          <internalNodes>
            0 -1 143 -16777233 -1 -285278978 -218693890 1876944735
            -41971841 -186122500 -218628353</internalNodes>
          <leafValues>
            -2.2527515888214111e-01 2.8136453032493591e-01</leafValues></_>
        <_>
          <internalNodes>
            0 -1 852 1727000367 34799527 -84480205 -253952077 1148671229
            2113798143 -268960257 -85461057</internalNodes>
          <leafValues>
            -2.2927141189575195e-01 2.6493194699287415e-01</leafValues></_>
        <_>
          <internalNodes>
            0 -1 482 237981472 -1364560020 -32770 -285281026 796753781
            -8913035 1827624276 -21564364</internalNodes>
          <leafValues>
            -3.4842655062675476e-01 1.6311171650886536e-01</leafValues></_>
        <_>
          <internalNodes>
            0 -1 587 -289 -806896897 -1348474707 758119439 -1075840833
            -637620229 2134858755 254795627</internalNodes>
          <leafValues>
            -1.9911971688270569e-01 2.7623400092124939e-01</leafValues></_>
        <_>
          <internalNodes>
            0 -1 1200 213782022 251547519 -1342259202 552402942
            -184591276 -319881249 -268705804 -390402124</internalNodes>
          <leafValues>
            -3.3135846257209778e-01 1.6383890807628632e-01</leafValues></_>
        <_>
          <internalNodes>
            0 -1 98 -1427378385 787464175 -537198597 -318898702
            2146432511 1325334527 -1213205072 1476394903</internalNodes>
          <leafValues>
            -2.6486933231353760e-01 1.8755118548870087e-01</leafValues></_>
        <_>
          <internalNodes>
            0 -1 164 1816194566 644656878 1853097241 263128493
            1343517908 2016870363 1143750848 1879008959</internalNodes>
          <leafValues>
            -3.6583539843559265e-01 1.3228100538253784e-01</leafValues></_>
        <_>
          <internalNodes>
            0 -1 1280 803716903 61405101 1862263200 1794309934 -1188089
            1212545023 -419437248 -254279689</internalNodes>
          <leafValues>
            -3.0516242980957031e-01 1.5307345986366272e-01</leafValues></_>
        <_>
          <internalNodes>
            0 -1 973 -1401243852 -516932 -11 -2565016 -1380860784
            -147457 -1376206856 -1413870340</internalNodes>
          <leafValues>
            -2.0732785761356354e-01 2.2929899394512177e-01</leafValues></_>
        <_>
          <internalNodes>
            0 -1 759 -1069028604 290476864 -455028220 -1284381242
            611673228 71352212 -997857304 -871825891</internalNodes>
          <leafValues>
            -2.5664418935775757e-01 1.7561595141887665e-01</leafValues></_>
        <_>
          <internalNodes>
            0 -1 708 137242419 -1362477189 -553654281 -1362195209
            -1629257903 -1610641553 -335845771 -340857008</internalNodes>
          <leafValues>
            -2.6731449365615845e-01 1.6948553919792175e-01</leafValues></_>
        <_>
          <internalNodes>
            0 -1 926 1422257056 273874896 -1364426951 176171520
            1291667492 1113278334 727926331 801064495</internalNodes>
          <leafValues>
            -3.3196240663528442e-01 1.2888410687446594e-01</leafValues></_>
        <_>
          <internalNodes>
            0 -1 1126 -1480688719 -1348157643 -272634381 -33624078
            1073737681 -285347906 -1075351051 -1884138140</internalNodes>
          <leafValues>
            -2.2188988327980042e-01 1.9792187213897705e-01</leafValues></_>
        <_>
          <internalNodes>
            0 -1 252 108997135 779485183 -492606 542912374 1551324228
            1316421495 905328720 1886451460</internalNodes>
          <leafValues>
            -4.1226595640182495e-01 1.0592450201511383e-01</leafValues></_>
        <_>
          <internalNodes>
            0 -1 908 -836058875 -7147721 -65637 -6169 -287600727
            -268697857 -16795731 -2002631676</internalNodes>
          <leafValues>
            -2.0737330615520477e-01 2.0574060082435608e-01</leafValues></_>
        <_>
          <internalNodes>
            0 -1 669 -624951304 1466988058 1576828218 1601360934
            1112597812 503401046 -1452055006 1224950863</internalNodes>
          <leafValues>
            -2.4175983667373657e-01 1.7056562006473541e-01</leafValues></_>
        <_>
          <internalNodes>
            0 -1 249 -83886246 -420025606 -268506258 -2039743889
            -321947292 -1594791849 -167818231 1162331247</internalNodes>
          <leafValues>
            -3.0580404400825500e-01 1.3797967135906219e-01</leafValues></_>
        <_>
          <internalNodes>
            0 -1 977 212882516 -117932131 -70145 -18874883 788193200
            -1124663321 1067268028 -1363205058</internalNodes>
          <leafValues>
            -1.9411474466323853e-01 2.1131943166255951e-01</leafValues></_>
        <_>
          <internalNodes>
            0 -1 705 -17375233 -16900289 2145316603 -1179115777
            -17351428 -283148481 -167838220 -4558604</internalNodes>
          <leafValues>
            -1.5829893946647644e-01 2.5751757621765137e-01</leafValues></_>
        <_>
          <internalNodes>
            0 -1 1342 -1077936201 1810816407 -109314051 -84218019
            2139094967 -318769221 1861964269 1308349949</internalNodes>
          <leafValues>
            -1.5981303155422211e-01 2.4595986306667328e-01</leafValues></_>
        <_>
          <internalNodes>
            0 -1 557 1157621422 556990377 -294131038 -76290181
            2093045229 1021313012 -201884162 -101451154</internalNodes>
          <leafValues>
            -1.9820098578929901e-01 1.9552461802959442e-01</leafValues></_>
        <_>
          <internalNodes>
            0 -1 129 1325362795 779974603 1559137962 -1564808742
            1862229845 1862166363 -427968716 1786183542</internalNodes>
          <leafValues>
            -3.0084386467933655e-01 1.3442464172840118e-01</leafValues></_>
        <_>
          <internalNodes>
            0 -1 856 -196085842 827382484 834693978 -1177258374
            1347547645 1495627588 -1192257094 -1411304210</internalNodes>
          <leafValues>
            -1.7577072978019714e-01 2.1562658250331879e-01</leafValues></_>
        <_>
          <internalNodes>
            0 -1 1182 -496301554 1374896063 497004198 1138577339
            1533741060 1431655410 -1355436408 1156054903</internalNodes>
          <leafValues>
            -2.6900053024291992e-01 1.4383892714977264e-01</leafValues></_>
        <_>
          <internalNodes>
            0 -1 561 69608960 724467637 -553762288 -85050576 612052244
            -268636354 1825846608 -268796476</internalNodes>
          <leafValues>
            -3.3877205848693848e-01 1.1241438984870911e-01</leafValues></_></weakClassifiers></_>
    <!-- stage 3 -->
    <_>
      <maxWeakCount>37</maxWeakCount>
      <stageThreshold>-2.3357441425323486e+00</stageThreshold>
      <weakClassifiers>
        <_>
          <internalNodes>
            0 -1 526 -1 -20481 -6313281 -21829 -16449 -1 -23877 -21825</internalNodes>
          <leafValues>
            -6.3612490892410278e-01 3.1515091657638550e-01</leafValues></_>
        <_>
          <internalNodes>
            0 -1 559 49226243 402095999 586228259 -134217729 1300187135
            2147483583 -67108865 -1</internalNodes>
          <leafValues>
            -4.5604857802391052e-01 2.4437843263149261e-01</leafValues></_>
        <_>
          <internalNodes>
            0 -1 17 -16778590 -83886081 -1091062544 -25165825 -167779337
            -65 -1 -1</internalNodes>
          <leafValues>
            -2.9490119218826294e-01 3.0834966897964478e-01</leafValues></_>
        <_>
          <internalNodes>
            0 -1 927 -53477696 -993198148 -1242632876 -850395313
            -795348864 -796658189 -8257 -257</internalNodes>
          <leafValues>
            -3.2080984115600586e-01 2.5829929113388062e-01</leafValues></_>
        <_>
          <internalNodes>
            0 -1 892 -40961 -65537 -33554433 -4521986 -32771 -1
            -67108868 -1426580448</internalNodes>
          <leafValues>
            -1.8975719809532166e-01 3.6954033374786377e-01</leafValues></_>
        <_>
          <internalNodes>
            0 -1 65 -134742017 -1 -1098914166 547532526 -25297900
            -526025 -739522548 -800588221</internalNodes>
          <leafValues>
            -3.3005899190902710e-01 2.0231799781322479e-01</leafValues></_>
        <_>
          <internalNodes>
            0 -1 1165 -1 -273678933 -16778256 -201588774 -5 -838861921
            -171969039 -168298505</internalNodes>
          <leafValues>
            -1.8060202896595001e-01 3.2801616191864014e-01</leafValues></_>
        <_>
          <internalNodes>
            0 -1 83 -6194 -455028745 -276828305 -270008337 -51390715
            1145044828 -4273 1333788543</internalNodes>
          <leafValues>
            -2.8736245632171631e-01 1.9510196149349213e-01</leafValues></_>
        <_>
          <internalNodes>
            0 -1 844 -680530385 355203511 -621285386 -201983066
            1148667373 1022840189 1996455934 -570428161</internalNodes>
          <leafValues>
            -1.9300270080566406e-01 2.7487847208976746e-01</leafValues></_>
        <_>
          <internalNodes>
            0 -1 895 -1363268299 -1363607689 -28809 -1364525313
            1040151893 -33562761 -268538511 -67568268</internalNodes>
          <leafValues>
            -2.6256200671195984e-01 1.9447927176952362e-01</leafValues></_>
        <_>
          <internalNodes>
            0 -1 220 -673714470 -1741625806 -538013699 2066926331
            1465182028 -646915657 1279296588 -5251201</internalNodes>
          <leafValues>
            -2.1470335125923157e-01 2.2930036485195160e-01</leafValues></_>
        <_>
          <internalNodes>
            0 -1 418 -286298145 -32897 -16842793 -1090849285 -604078211
            -8667267 -117516292 -29687940</internalNodes>
          <leafValues>
            -1.7114503681659698e-01 2.7273368835449219e-01</leafValues></_>
        <_>
          <internalNodes>
            0 -1 997 -796925438 1440036670 2143260382 2119923470
            -1075882752 -574884006 -321926136 -44056705</internalNodes>
          <leafValues>
            -2.3708768188953400e-01 1.9811420142650604e-01</leafValues></_>
        <_>
          <internalNodes>
            0 -1 879 -894369996 -139530572 -33562627 -2830348 -26935371
            -1093533705 -289890832 -1415446480</internalNodes>
          <leafValues>
            -2.2513103485107422e-01 2.0214381814002991e-01</leafValues></_>
        <_>
          <internalNodes>
            0 -1 645 -722091790 1347806408 1087408261 1437822423 2130354
            -592126786 1530054143 -1109657797</internalNodes>
          <leafValues>
            -2.2136612236499786e-01 1.9863185286521912e-01</leafValues></_>
        <_>
          <internalNodes>
            0 -1 124 -286265809 720302039 -85557586 -491065374 500127615
            1216085949 -134264976 1987444725</internalNodes>
          <leafValues>
            -2.8544440865516663e-01 1.5553681552410126e-01</leafValues></_>
        <_>
          <internalNodes>
            0 -1 440 -1431656651 -88426562 -536903937 -13567284
            -134742531 -3016706 -393891 -9143179</internalNodes>
          <leafValues>
            -2.1062146127223969e-01 2.1577951312065125e-01</leafValues></_>
        <_>
          <internalNodes>
            0 -1 1242 -1359005897 250523639 -285215362 682278704
            1475837045 535559549 -536883392 -386204176</internalNodes>
          <leafValues>
            -2.6203003525733948e-01 1.5839351713657379e-01</leafValues></_>
        <_>
          <internalNodes>
            0 -1 370 1343286864 292643412 -1564996268 903987973
            1411708836 1843361535 843123511 1003483099</internalNodes>
          <leafValues>
            -2.8113567829132080e-01 1.4188045263290405e-01</leafValues></_>
        <_>
          <internalNodes>
            0 -1 965 1243673968 -2011163280 754859773 -1703672656
            138713104 -1342636545 -1093612296 -1431359749</internalNodes>
          <leafValues>
            -2.2146257758140564e-01 1.7531917989253998e-01</leafValues></_>
        <_>
          <internalNodes>
            0 -1 2 238020539 250543727 -409096769 -286855728 1320941567
            1840184499 134217143 1308622271</internalNodes>
          <leafValues>
            -2.0876698195934296e-01 1.9059202075004578e-01</leafValues></_>
        <_>
          <internalNodes>
            0 -1 854 1862214947 708050855 -16830864 -84084882 1157054788
            794809655 -991432479 -151718457</internalNodes>
          <leafValues>
            -2.4696075916290283e-01 1.6073071956634521e-01</leafValues></_>
        <_>
          <internalNodes>
            0 -1 1121 -1398604475 -1456455852 -1073741827 -583636620
            -2128896579 -67174468 -1678786595 -262931</internalNodes>
          <leafValues>
            -1.7319421470165253e-01 2.3315708339214325e-01</leafValues></_>
        <_>
          <internalNodes>
            0 -1 913 -938947416 508226952 -1073758275 1001061944
            158998667 -268997129 -1373278818 182411690</internalNodes>
          <leafValues>
            -2.3416267335414886e-01 1.6185039281845093e-01</leafValues></_>
        <_>
          <internalNodes>
            0 -1 1068 262026293 -1795494087 -570468385 -542575752
            1052729205 -805308547 1073460221 -1342548760</internalNodes>
          <leafValues>
            -1.9429747760295868e-01 1.9129604101181030e-01</leafValues></_>
        <_>
          <internalNodes>
            0 -1 77 1744828303 773291819 -83893654 -521998418 -67149953
            2120089463 -134746636 1953951455</internalNodes>
          <leafValues>
            -2.7348554134368896e-01 1.3505345582962036e-01</leafValues></_>
        <_>
          <internalNodes>
            0 -1 776 -67108874 -773275722 -814007060 2012278518
            -41945912 941770749 -322998360 -2139884170</internalNodes>
          <leafValues>
            -1.8070618808269501e-01 1.9534534215927124e-01</leafValues></_>
        <_>
          <internalNodes>
            0 -1 870 -597099139 -1464544876 -344679 -147950628
            -805790212 -621478547 -806726404 -272936993</internalNodes>
          <leafValues>
            -1.4908972382545471e-01 2.5590059161186218e-01</leafValues></_>
        <_>
          <internalNodes>
            0 -1 1374 -1628443865 678001974 -1359091150 -1493243982
            115236613 1868455767 1266025572 1700658948</internalNodes>
          <leafValues>
            -3.0709382891654968e-01 1.2100017815828323e-01</leafValues></_>
        <_>
          <internalNodes>
            0 -1 1197 78532119 213294995 -276891139 946012150 536553028
            2097114485 -268505632 -84740560</internalNodes>
          <leafValues>
            -2.5380975008010864e-01 1.4036835730075836e-01</leafValues></_>
        <_>
          <internalNodes>
            0 -1 340 763047815 -137427141 -134229189 859458926
            2013099359 -537403523 2126446496 2033217407</internalNodes>
          <leafValues>
            -2.0364174246788025e-01 1.7256428301334381e-01</leafValues></_>
        <_>
          <internalNodes>
            0 -1 213 2037237936 187074152 -288764353 723855110
            1610151127 1867971829 1795123288 1841251055</internalNodes>
          <leafValues>
            -2.3128707706928253e-01 1.4648264646530151e-01</leafValues></_>
        <_>
          <internalNodes>
            0 -1 408 -134221302 440560438 1324772566 674428451
            -865613740 1311834102 -1359571844 -537142033</internalNodes>
          <leafValues>
            -1.9645573198795319e-01 1.7152379453182220e-01</leafValues></_>
        <_>
          <internalNodes>
            0 -1 621 975340672 976794213 -604516361 -1184126463
            1526090880 -229891 728729480 269942914</internalNodes>
          <leafValues>
            -2.9997184872627258e-01 1.1409329622983932e-01</leafValues></_>
        <_>
          <internalNodes>
            0 -1 1033 -486809054 11188019 -822435853 -185423908
            820466740 -1251792009 -596127821 -110889808</internalNodes>
          <leafValues>
            -2.1401879191398621e-01 1.5963040292263031e-01</leafValues></_>
        <_>
          <internalNodes>
            0 -1 423 707405601 -1360068614 -272779721 -520305028
            937377639 -819987202 -1483262128 1844106356</internalNodes>
          <leafValues>
            -3.0504629015922546e-01 1.1002054810523987e-01</leafValues></_>
        <_>
          <internalNodes>
            0 -1 165 677904914 615180534 -1427231985 -1343508485
            550507281 -309569940 105913618 701388603</internalNodes>
          <leafValues>
            -3.4493222832679749e-01 9.8138533532619476e-02</leafValues></_></weakClassifiers></_>
    <!-- stage 4 -->
    <_>
      <maxWeakCount>44</maxWeakCount>
      <stageThreshold>-2.2828907966613770e+00</stageThreshold>
      <weakClassifiers>
        <_>
          <internalNodes>
            0 -1 444 -1 -4097 -33576001 -21845 -16449 -4097 -21845
            -21845</internalNodes>
          <leafValues>
            -6.3065290451049805e-01 2.3213794827461243e-01</leafValues></_>
        <_>
          <internalNodes>
            0 -1 50 -222101530 -251661569 -273743873 -1048577 -176881673
            -184557569 -12591233 -1049633</internalNodes>
          <leafValues>
            -3.9812391996383667e-01 2.0646968483924866e-01</leafValues></_>
        <_>
          <internalNodes>
            0 -1 1169 -11 -4259843 -3 -1114124 -1073741835 -268436489
            -1073750539 -536879628</internalNodes>
          <leafValues>
            -2.0087049901485443e-01 3.7583824992179871e-01</leafValues></_>
        <_>
          <internalNodes>
            0 -1 151 -269488209 -286326785 -4194433 -285214729
            -536870913 1325400063 -2099201 -1</internalNodes>
          <leafValues>
            -2.2514189779758453e-01 3.1469589471817017e-01</leafValues></_>
        <_>
          <internalNodes>
            0 -1 650 -138416209 2000135979 -33690966 -134218961
            134090159 1274226623 -50347282 -3089</internalNodes>
          <leafValues>
            -2.0835180580615997e-01 3.0995675921440125e-01</leafValues></_>
        <_>
          <internalNodes>
            0 -1 749 -724566080 1424359415 -326312172 1089797902
            -444616014 -168361997 -1114181 -68162593</internalNodes>
          <leafValues>
            -2.3290783166885376e-01 2.5235778093338013e-01</leafValues></_>
        <_>
          <internalNodes>
            0 -1 415 -16777217 -17039361 -151257089 -151322689 -161
            -4194467 -18425604 -21823490</internalNodes>
          <leafValues>
            -1.8814754486083984e-01 3.2403066754341125e-01</leafValues></_>
        <_>
          <internalNodes>
            0 -1 1299 -561393 2146955135 -84149250 -218631169 1944551172
            2116026239 -136184976 1999896435</internalNodes>
          <leafValues>
            -2.7012100815773010e-01 2.1063065528869629e-01</leafValues></_>
        <_>
          <internalNodes>
            0 -1 253 -67108865 -2099329 -268435473 -273679537 -262145
            -864815113 -8433841 1330642703</internalNodes>
          <leafValues>
            -1.6282942891120911e-01 3.2727563381195068e-01</leafValues></_>
        <_>
          <internalNodes>
            0 -1 659 581658403 598634405 -17567952 -524548 1415865653
            -1147146305 -688425676 -2563</internalNodes>
          <leafValues>
            -2.5534477829933167e-01 1.9209803640842438e-01</leafValues></_>
        <_>
          <internalNodes>
            0 -1 1132 -857076683 -84508677 -4194307 -269945353
            -336700268 -2097185 -855880516 -1465078316</internalNodes>
          <leafValues>
            -2.6259171962738037e-01 1.8164834380149841e-01</leafValues></_>
        <_>
          <internalNodes>
            0 -1 877 1280363888 -1225254124 -1628110851 -242436
            244321780 -1286155 -73768964 -1077998081</internalNodes>
          <leafValues>
            -1.9155007600784302e-01 2.2426147758960724e-01</leafValues></_>
        <_>
          <internalNodes>
            0 -1 1238 243208023 775725051 -71303274 -1426131098
            -402687228 2147475455 -268436396 -357367836</internalNodes>
          <leafValues>
            -2.5831031799316406e-01 1.6331787407398224e-01</leafValues></_>
        <_>
          <internalNodes>
            0 -1 447 1348266640 1363207168 -1467347431 299435813
            268492960 1037881287 415375521 991671023</internalNodes>
          <leafValues>
            -2.7928772568702698e-01 1.3773196935653687e-01</leafValues></_>
        <_>
          <internalNodes>
            0 -1 132 -272609 922419131 -25446722 673381114 -2022179520
            -495785994 -589510452 -260837521</internalNodes>
          <leafValues>
            -2.3023666441440582e-01 1.8344002962112427e-01</leafValues></_>
        <_>
          <internalNodes>
            0 -1 999 -1035811547 -604471355 -134942785 -239313517
            -338252611 -1073778737 -391213940 -1997880031</internalNodes>
          <leafValues>
            -1.8951831758022308e-01 1.9719702005386353e-01</leafValues></_>
        <_>
          <internalNodes>
            0 -1 264 -1224790961 -562208897 2122317687 -486867201
            1600994113 -61673 -133580 1781585780</internalNodes>
          <leafValues>
            -2.5635424256324768e-01 1.4375592768192291e-01</leafValues></_>
        <_>
          <internalNodes>
            0 -1 1320 -603988033 -272629829 -4214925 -67600 -276889601
            -872419331 -1615366159 -637538828</internalNodes>
          <leafValues>
            -1.3106824457645416e-01 2.8110539913177490e-01</leafValues></_>
        <_>
          <internalNodes>
            0 -1 855 -495983094 287538743 -486609242 -169672746
            1701274703 1196797788 -1331692293 -573444161</internalNodes>
          <leafValues>
            -2.1997453272342682e-01 1.7231269180774689e-01</leafValues></_>
        <_>
          <internalNodes>
            0 -1 600 -555791489 -25272449 -153157957 -1150247041
            -536906435 -25493511 -562237444 -9273474</internalNodes>
          <leafValues>
            -1.4564982056617737e-01 2.5085815787315369e-01</leafValues></_>
        <_>
          <internalNodes>
            0 -1 1077 -1897001967 251027447 -4105 -1669414985 2130386240
            -14684169 -1075331212 -1614821349</internalNodes>
          <leafValues>
            -2.1100822091102600e-01 1.7163754999637604e-01</leafValues></_>
        <_>
          <internalNodes>
            0 -1 61 -318771217 183169007 1853580916 -1963278690
            -33571017 2111165931 2146435008 1946025783</internalNodes>
          <leafValues>
            -2.1268151700496674e-01 1.6420748829841614e-01</leafValues></_>
        <_>
          <internalNodes>
            0 -1 540 1347545722 1170339508 1079282513 1442706822
            1348527794 -780470797 373673963 1591449743</internalNodes>
          <leafValues>
            -2.0852997899055481e-01 1.6231192648410797e-01</leafValues></_>
        <_>
          <internalNodes>
            0 -1 1170 209658129 -1943126027 -1091633411 -1910181956
            347422449 1289453559 1874853309 149560552</internalNodes>
          <leafValues>
            -2.6245740056037903e-01 1.2598614394664764e-01</leafValues></_>
        <_>
          <internalNodes>
            0 -1 570 -380645385 -1879949570 -664334 -884810066
            -1235781196 -996476933 1294139504 -580665533</internalNodes>
          <leafValues>
            -2.0428025722503662e-01 1.6293300688266754e-01</leafValues></_>
        <_>
          <internalNodes>
            0 -1 368 -156242184 -68245720 -721985 -309581310 2096977908
            1576414907 -16818980 1221424981</internalNodes>
          <leafValues>
            -1.8772187829017639e-01 1.8424330651760101e-01</leafValues></_>
        <_>
          <internalNodes>
            0 -1 1180 -486569216 -1972064385 -1359098388 -907348146
            2045602337 409465713 -1347244152 -436746433</internalNodes>
          <leafValues>
            -2.1050855517387390e-01 1.6032423079013824e-01</leafValues></_>
        <_>
          <internalNodes>
            0 -1 319 -436212178 741797742 -17924358 -265226730
            -1554068204 73555574 1893069872 -193464748</internalNodes>
          <leafValues>
            -3.2478341460227966e-01 1.0280553996562958e-01</leafValues></_>
        <_>
          <internalNodes>
            0 -1 1115 1143908148 873477424 1065025117 -5055180
            1073728413 -1397022953 -1073901571 -1409548485</internalNodes>
          <leafValues>
            -1.4900824427604675e-01 2.2641496360301971e-01</leafValues></_>
        <_>
          <internalNodes>
            0 -1 135 787983423 -1057034241 -1478574627 -1603371074
            -808034467 1031110485 -403835548 1953561332</internalNodes>
          <leafValues>
            -2.7844738960266113e-01 1.1588683724403381e-01</leafValues></_>
        <_>
          <internalNodes>
            0 -1 940 1728047778 777252260 -553726320 -172884034 74925805
            1820155902 -1787300627 -1840732</internalNodes>
          <leafValues>
            -1.9364222884178162e-01 1.6434744000434875e-01</leafValues></_>
        <_>
          <internalNodes>
            0 -1 858 -1402253822 1074199463 -457259116 -18454532
            1080321604 -1401520321 -1835870908 -871183964</internalNodes>
          <leafValues>
            -2.7106386423110962e-01 1.1698372662067413e-01</leafValues></_>
        <_>
          <internalNodes>
            0 -1 883 74468400 1554935132 -13071492 1048082032 537408912
            -556941409 2088242672 733678690</internalNodes>
          <leafValues>
            -2.7586004137992859e-01 1.1664661765098572e-01</leafValues></_>
        <_>
          <internalNodes>
            0 -1 1049 -969887824 1561632548 -4432555 -4283076
            -1716402351 -1442906128 954775436 -1145365221</internalNodes>
          <leafValues>
            -1.5465497970581055e-01 2.0423752069473267e-01</leafValues></_>
        <_>
          <internalNodes>
            0 -1 1325 680993555 787136126 -404754573 -395378720
            114294135 -1881188371 888632657 1291636213</internalNodes>
          <leafValues>
            -2.7318221330642700e-01 1.1394249647855759e-01</leafValues></_>
        <_>
          <internalNodes>
            0 -1 811 -834748399 -54628604 1006631795 -1189026655
            -354437899 -16777729 -354419255 -329586428</internalNodes>
          <leafValues>
            -1.8316134810447693e-01 1.6873252391815186e-01</leafValues></_>
        <_>
          <internalNodes>
            0 -1 640 1601496722 353630019 -54789448 -678363167
            -772151556 -1074300940 -33700134 -67410838</internalNodes>
          <leafValues>
            -1.2527409195899963e-01 2.4215647578239441e-01</leafValues></_>
        <_>
          <internalNodes>
            0 -1 815 2136817210 1148483511 785233695 116174414
            -681641184 -302680065 1663173130 2003820110</internalNodes>
          <leafValues>
            -2.3076546192169189e-01 1.3539314270019531e-01</leafValues></_>
        <_>
          <internalNodes>
            0 -1 565 270689792 -1465844448 -8501518 -26021940 572528640
            -1075262316 536637860 -120136244</internalNodes>
          <leafValues>
            -2.8370663523674011e-01 1.1163587868213654e-01</leafValues></_>
        <_>
          <internalNodes>
            0 -1 1230 -860159979 -1082499093 2138897591 1072610723
            -1090581500 -612501705 -1512130900 716311483</internalNodes>
          <leafValues>
            -1.9228386878967285e-01 1.5823151171207428e-01</leafValues></_>
        <_>
          <internalNodes>
            0 -1 88 -1543540361 2143250239 -1125777541 959599391
            -8960737 -562606723 -1662813585 2130959987</internalNodes>
          <leafValues>
            -1.3844487071037292e-01 2.1502597630023956e-01</leafValues></_>
        <_>
          <internalNodes>
            0 -1 149 -1423343687 -1364275202 984476183 -1363693604
            2134373663 -1359037473 2143151894 1331289596</internalNodes>
          <leafValues>
            -2.0948439836502075e-01 1.4353831112384796e-01</leafValues></_>
        <_>
          <internalNodes>
            0 -1 1088 -656617968 -1698866214 227896081 1470856560
            2147329693 1002957823 -1881863539 793854208</internalNodes>
          <leafValues>
            -1.8685756623744965e-01 1.5738223493099213e-01</leafValues></_>
        <_>
          <internalNodes>
            0 -1 401 -1242041610 -1065060424 867139447 3007407
            -493506316 -2136962716 1207434005 1176491587</internalNodes>
          <leafValues>
            -2.5308081507682800e-01 1.1896766722202301e-01</leafValues></_></weakClassifiers></_>
    <!-- stage 5 -->
    <_>
      <maxWeakCount>53</maxWeakCount>
      <stageThreshold>-2.2440607547760010e+00</stageThreshold>
      <weakClassifiers>
        <_>
          <internalNodes>
            0 -1 450 -21505 -41963649 -21825 -21825 -822105153 -65
            -67130693 -21589</internalNodes>
          <leafValues>
            -6.6119611263275146e-01 5.5850736796855927e-02</leafValues></_>
        <_>
          <internalNodes>
            0 -1 530 -513 -1 804237115 -1355022405 -65 -8193 264179499
            801091519</internalNodes>
          <leafValues>
            -3.5316690802574158e-01 2.1697962284088135e-01</leafValues></_>
        <_>
          <internalNodes>
            0 -1 417 -50331914 -84476166 -8389634 -4522438 -574784300
            -62521616 -302027576 -301990145</internalNodes>
          <leafValues>
            -2.5240969657897949e-01 2.8781285881996155e-01</leafValues></_>
        <_>
          <internalNodes>
            0 -1 464 -713755308 1343282304 -2063969188 -717105825
            -801051292 -655434 -362251138 -2097617</internalNodes>
          <leafValues>
            -3.1416672468185425e-01 1.9607304036617279e-01</leafValues></_>
        <_>
          <internalNodes>
            0 -1 105 -269488209 -286330897 -129 -286261250 -536870913
            1342177279 -2305 -1</internalNodes>
          <leafValues>
            -1.6632452607154846e-01 3.0597588419914246e-01</leafValues></_>
        <_>
          <internalNodes>
            0 -1 1253 -524297 -1342179361 -67108875 -524300 -1073745945
            -1343226377 -33557019 -570434060</internalNodes>
          <leafValues>
            -1.5680521726608276e-01 3.2916495203971863e-01</leafValues></_>
        <_>
          <internalNodes>
            0 -1 745 -801049116 1359035972 -391975392 -1042960633
            -1002123031 -1912916313 -456135473 -1074854962</internalNodes>
          <leafValues>
            -2.3206672072410583e-01 1.9566638767719269e-01</leafValues></_>
        <_>
          <internalNodes>
            0 -1 1256 -268497129 -8321 -65669 -218103809 -49323 -145
            -132489 -1</internalNodes>
          <leafValues>
            -1.4317038655281067e-01 3.0080106854438782e-01</leafValues></_>
        <_>
          <internalNodes>
            0 -1 1030 1124068898 44228495 -352590618 -219231304
            1988055311 2147446014 -16779010 -84478501</internalNodes>
          <leafValues>
            -2.8900048136711121e-01 1.4250038564205170e-01</leafValues></_>
        <_>
          <internalNodes>
            0 -1 801 653678463 -1073865345 -285229569 -1076447233
            -100507 -1221057 -218202116 -1095098528</internalNodes>
          <leafValues>
            -1.9373893737792969e-01 2.0305958390235901e-01</leafValues></_>
        <_>
          <internalNodes>
            0 -1 1028 -268441984 -929366106 -1398478848 -909328406
            1090503920 82703457 -266604032 -83363869</internalNodes>
          <leafValues>
            -3.0310764908790588e-01 1.2358184903860092e-01</leafValues></_>
        <_>
          <internalNodes>
            0 -1 391 1851748151 -1359053385 -268455105 -18153738
            838295381 -1155 -504072860 -17370016</internalNodes>
          <leafValues>
            -2.1228027343750000e-01 1.7256371676921844e-01</leafValues></_>
        <_>
          <internalNodes>
            0 -1 850 -8917077 841005986 -19206494 -1213924640 1449480701
            1517449079 -268567378 -109904922</internalNodes>
          <leafValues>
            -1.7326363921165466e-01 2.0387871563434601e-01</leafValues></_>
        <_>
          <internalNodes>
            0 -1 497 -621610406 -19019038 750746643 -2102409042
            -720914608 -713861354 2127514688 1261389319</internalNodes>
          <leafValues>
            -2.6419302821159363e-01 1.3592158257961273e-01</leafValues></_>
        <_>
          <internalNodes>
            0 -1 787 -466304908 -295413835 -361473 1073524734 683448564
            -554369539 -1901835080 -1078262274</internalNodes>
          <leafValues>
            -1.6804349422454834e-01 2.0522637665271759e-01</leafValues></_>
        <_>
          <internalNodes>
            0 -1 140 -461374529 -1426063489 -285557514 -251723778
            -729241 -10027157 -34642364 1962852350</internalNodes>
          <leafValues>
            -2.3692750930786133e-01 1.4249169826507568e-01</leafValues></_>
        <_>
          <internalNodes>
            0 -1 977 146300400 -624643 -1073741825 -1080083721
            -1095045121 -16785411 1073643259 -1342501702</internalNodes>
          <leafValues>
            -1.3532365858554840e-01 2.3789766430854797e-01</leafValues></_>
        <_>
          <internalNodes>
            0 -1 1357 -1883279569 -1372586337 -942271918 -324223610
            1986002295 1305853919 -50387596 1693772784</internalNodes>
          <leafValues>
            -2.7793306112289429e-01 1.1860605329275131e-01</leafValues></_>
        <_>
          <internalNodes>
            0 -1 973 -17238288 -50815500 -1074331915 -1141326348
            -1921728815 -11 -67963143 -1146485712</internalNodes>
          <leafValues>
            -1.7213280498981476e-01 1.9187401235103607e-01</leafValues></_>
        <_>
          <internalNodes>
            0 -1 292 2121592534 2131856384 -823632035 1066274699
            1987331296 1035037695 79105061 1072687531</internalNodes>
          <leafValues>
            -2.0128500461578369e-01 1.6412414610385895e-01</leafValues></_>
        <_>
          <internalNodes>
            0 -1 802 -1362163947 -2098561985 -150999055 -522190851
            2147445520 -807403649 -279365772 -84931</internalNodes>
          <leafValues>
            -2.0553939044475555e-01 1.5751437842845917e-01</leafValues></_>
        <_>
          <internalNodes>
            0 -1 49 -823729534 183936556 -356587764 259878054 1360359796
            1422849517 1421272912 1089435530</internalNodes>
          <leafValues>
            -3.6551705002784729e-01 8.4914751350879669e-02</leafValues></_>
        <_>
          <internalNodes>
            0 -1 266 -47121 -174116865 -1963002625 2052783983
            -1208224689 -67109017 -598020 2134046711</internalNodes>
          <leafValues>
            -1.4938126504421234e-01 2.0823709666728973e-01</leafValues></_>
        <_>
          <internalNodes>
            0 -1 1369 -56465 2080110495 -352921618 1392500735 1589579329
            2067267386 -18972812 1933246334</internalNodes>
          <leafValues>
            -1.9465994834899902e-01 1.5688978135585785e-01</leafValues></_>
        <_>
          <internalNodes>
            0 -1 648 2147469195 325318503 1995825398 -1251868814
            1430734031 527906118 1911611375 1945499473</internalNodes>
          <leafValues>
            -1.7260313034057617e-01 1.8120841681957245e-01</leafValues></_>
        <_>
          <internalNodes>
            0 -1 1128 -46144501 589897453 -1477202512 783058674
            156838319 -1936719889 100619485 1156567519</internalNodes>
          <leafValues>
            -1.9609929621219635e-01 1.5445488691329956e-01</leafValues></_>
        <_>
          <internalNodes>
            0 -1 885 -536881824 -1406879198 200003344 -1885144208
            1437544261 -830562635 -587312845 -7604037</internalNodes>
          <leafValues>
            -2.1202591061592102e-01 1.5389183163642883e-01</leafValues></_>
        <_>
          <internalNodes>
            0 -1 834 1581577648 1356376052 2051606113 1153369495
            1681929612 -121022466 589574031 1004356251</internalNodes>
          <leafValues>
            -2.3208120465278625e-01 1.2882189452648163e-01</leafValues></_>
        <_>
          <internalNodes>
            0 -1 280 803677999 720039397 250457868 -457380098
            -1160053966 -1128747226 -286639342 -339460641</internalNodes>
          <leafValues>
            -2.0443207025527954e-01 1.4715874195098877e-01</leafValues></_>
        <_>
          <internalNodes>
            0 -1 998 -1130232799 -554663953 -10748291 -197281
            -1115775803 -1143669507 -609293315 -1096262283</internalNodes>
          <leafValues>
            -1.6533012688159943e-01 1.7824546992778778e-01</leafValues></_>
        <_>
          <internalNodes>
            0 -1 1206 1879023427 -931463193 -1637113200 6356610
            503271181 226158591 -134291264 1157623798</internalNodes>
          <leafValues>
            -2.6573649048805237e-01 1.0930047929286957e-01</leafValues></_>
        <_>
          <internalNodes>
            0 -1 1058 2083714068 -1075118278 -1358971401 -1078289040
            467746301 -1342251521 1054785208 -1342503506</internalNodes>
          <leafValues>
            -1.4279951155185699e-01 2.0093224942684174e-01</leafValues></_>
        <_>
          <internalNodes>
            0 -1 563 -152309850 828636990 -252970380 -34439862 359495019
            113960955 -239241226 -607359778</internalNodes>
          <leafValues>
            -1.7101995646953583e-01 1.6579730808734894e-01</leafValues></_>
        <_>
          <internalNodes>
            0 -1 771 -717758978 1882259070 426438548 -1346310548
            -506072148 471889847 -659562614 -1447342322</internalNodes>
          <leafValues>
            -1.5497823059558868e-01 1.8751692771911621e-01</leafValues></_>
        <_>
          <internalNodes>
            0 -1 334 -23077441 -889585879 1580923775 676919799
            -404058356 -1117806753 -16974596 2119235576</internalNodes>
          <leafValues>
            -1.9110801815986633e-01 1.5210074186325073e-01</leafValues></_>
        <_>
          <internalNodes>
            0 -1 421 800392213 -565449 -690028709 1062387565 670785120
            -26215624 -955318924 2133908528</internalNodes>
          <leafValues>
            -2.1513989567756653e-01 1.3216428458690643e-01</leafValues></_>
        <_>
          <internalNodes>
            0 -1 1345 360697659 -876610068 -262351 -134492741 737666815
            -806027361 -1610648075 1576785397</internalNodes>
          <leafValues>
            -1.4531643688678741e-01 1.9679848849773407e-01</leafValues></_>
        <_>
          <internalNodes>
            0 -1 960 -592136335 -567247568 744810237 -1108820112
            -1259293388 -1456014092 -1092346832 -1095033385</internalNodes>
          <leafValues>
            -1.7111971974372864e-01 1.6943818330764771e-01</leafValues></_>
        <_>
          <internalNodes>
            0 -1 605 -1360908539 -1360364209 2146172735 -288584324
            1068186997 797441207 2130667381 244178301</internalNodes>
          <leafValues>
            -2.6180401444435120e-01 1.0651721805334091e-01</leafValues></_>
        <_>
          <internalNodes>
            0 -1 744 1423811232 1057286064 -286152648 1733687634
            1148666500 1920814205 1375063496 1318023306</internalNodes>
          <leafValues>
            -2.2399222850799561e-01 1.2687551975250244e-01</leafValues></_>
        <_>
          <internalNodes>
            0 -1 919 -598348656 815071069 -1359551534 852542448
            1920811008 -33751593 83177224 266060328</internalNodes>
          <leafValues>
            -2.4325175583362579e-01 1.1335908621549606e-01</leafValues></_>
        <_>
          <internalNodes>
            0 -1 22 -1362100289 783072178 927726963 -424742512
            -184557125 1316466520 -286264363 1431162356</internalNodes>
          <leafValues>
            -1.8810553848743439e-01 1.4218544960021973e-01</leafValues></_>
        <_>
          <internalNodes>
            0 -1 1149 82460674 10233715 -1368461772 642436900 955254796
            -19538333 -1157698063 -123011388</internalNodes>
          <leafValues>
            -2.6368957757949829e-01 1.0272698849439621e-01</leafValues></_>
        <_>
          <internalNodes>
            0 -1 620 -1004355456 -994380306 -1394982955 -589239705
            -9009975 -1073752081 -1437138867 140731904</internalNodes>
          <leafValues>
            -2.2151786088943481e-01 1.1930292844772339e-01</leafValues></_>
        <_>
          <internalNodes>
            0 -1 1201 1471384443 -1219707889 1777573680 531165108
            -1442879567 150465741 -713046896 -577276422</internalNodes>
          <leafValues>
            -1.5491615235805511e-01 1.7089127004146576e-01</leafValues></_>
        <_>
          <internalNodes>
            0 -1 862 -419535100 -1540182214 -16847369 -30756364
            -967322271 683572860 -672063052 -1068059178</internalNodes>
          <leafValues>
            -2.2154276072978973e-01 1.1903586983680725e-01</leafValues></_>
        <_>
          <internalNodes>
            0 -1 909 370509858 1565192110 131266067 866814632 1410483635
            -318841521 -156654866 627508362</internalNodes>
          <leafValues>
            -2.2186388075351715e-01 1.2098257988691330e-01</leafValues></_>
        <_>
          <internalNodes>
            0 -1 75 795553039 1253013503 2130491938 4206591 -185897635
            2095953235 2144761188 1886707414</internalNodes>
          <leafValues>
            -2.7212449908256531e-01 9.7789943218231201e-02</leafValues></_>
        <_>
          <internalNodes>
            0 -1 873 1423199252 1501830644 -1527781520 1564177119
            1786795485 -1359254177 -1074015020 -1342225929</internalNodes>
          <leafValues>
            -1.4357177913188934e-01 1.8294775485992432e-01</leafValues></_>
        <_>
          <internalNodes>
            0 -1 1258 183502897 1056709921 -1076826116 1229485567
            -1476846387 821837685 -2003719204 754252504</internalNodes>
          <leafValues>
            -2.6320126652717590e-01 1.0136426240205765e-01</leafValues></_>
        <_>
          <internalNodes>
            0 -1 701 -429502928 875695983 -289791850 -487433126
            887949127 -1976668651 -769636668 -12961986</internalNodes>
          <leafValues>
            -2.0531822741031647e-01 1.2481507658958435e-01</leafValues></_>
        <_>
          <internalNodes>
            0 -1 868 -194513018 -1682813125 2013137368 -1645740098
            -1094058051 -2065673115 1551317449 -1982340129</internalNodes>
          <leafValues>
            -1.2675078213214874e-01 2.0269154012203217e-01</leafValues></_>
        <_>
          <internalNodes>
            0 -1 1323 -1161846977 -814293165 -67387397 1877663480
            216948687 -1409351817 1602217173 1291369660</internalNodes>
          <leafValues>
            -1.7698961496353149e-01 1.4853794872760773e-01</leafValues></_></weakClassifiers></_>
    <!-- stage 6 -->
    <_>
      <maxWeakCount>63</maxWeakCount>
      <stageThreshold>-2.2268686294555664e+00</stageThreshold>
      <weakClassifiers>
        <_>
          <internalNodes>
            0 -1 352 -1025 -20481 -4740421 -67130629 -1114177 -1 -21829
            -21573</internalNodes>
          <leafValues>
            -6.2284165620803833e-01 1.4766094088554382e-01</leafValues></_>
        <_>
          <internalNodes>
            0 -1 753 -725289740 -707658787 551904501 -134221313
            -1342111745 -461826 552054271 -21505</internalNodes>
          <leafValues>
            -3.7305396795272827e-01 1.8615362048149109e-01</leafValues></_>
        <_>
          <internalNodes>
            0 -1 119 -19464470 -252513294 -325128404 -135302470
            -145358864 -262672910 -579077601 -2097185</internalNodes>
          <leafValues>
            -2.7074566483497620e-01 2.1007682383060455e-01</leafValues></_>
        <_>
          <internalNodes>
            0 -1 976 -538969104 -869079312 -35660464 -6230416 -704645136
            -1406665551 1442797045 -536871437</internalNodes>
          <leafValues>
            -2.4269683659076691e-01 2.1783427894115448e-01</leafValues></_>
        <_>
          <internalNodes>
            0 -1 1179 -12529 -262145 -268439569 -201326593 -61944
            -2055364689 -290485108 -8257</internalNodes>
          <leafValues>
            -1.0730698704719543e-01 3.5465940833091736e-01</leafValues></_>
        <_>
          <internalNodes>
            0 -1 504 -1 -33289 -81921 -2457681 -1114627 -9233 -65538
            -1086652417</internalNodes>
          <leafValues>
            -1.4896848797798157e-01 3.5022255778312683e-01</leafValues></_>
        <_>
          <internalNodes>
            0 -1 970 -598680076 -36121192 -138478083 -537389572
            -51053095 -4431875 -33767492 -1079304961</internalNodes>
          <leafValues>
            -1.6363747417926788e-01 2.6847484707832336e-01</leafValues></_>
        <_>
          <internalNodes>
            0 -1 13 -222301518 -1560669238 -478251470 572683330
            660595455 -134766593 -35651721 -143132809</internalNodes>
          <leafValues>
            -2.2662034630775452e-01 1.9830231368541718e-01</leafValues></_>
        <_>
          <internalNodes>
            0 -1 557 2011162372 52952889 -319295966 -2241 1837059398
            408411287 -50332294 -67108881</internalNodes>
          <leafValues>
            -2.4877545237541199e-01 1.5930040180683136e-01</leafValues></_>
        <_>
          <internalNodes>
            0 -1 853 -590351374 -990842882 -102437088 -839974930
            -1796149008 -1057992988 -258215614 -324011014</internalNodes>
          <leafValues>
            -2.3930619657039642e-01 1.5753555297851562e-01</leafValues></_>
        <_>
          <internalNodes>
            0 -1 751 -637671794 353679167 -663576 1573256903 1413301725
            1021078015 -84544372 -587204917</internalNodes>
          <leafValues>
            -1.6546921432018280e-01 2.0433989167213440e-01</leafValues></_>
        <_>
          <internalNodes>
            0 -1 134 -17826206 1751842250 -2065 -1347453137 922547984
            1890769363 -406880437 2147482623</internalNodes>
          <leafValues>
            -2.1408186852931976e-01 1.5553988516330719e-01</leafValues></_>
        <_>
          <internalNodes>
            0 -1 512 -1371600073 653705215 -807440521 -1898512389
            -1879623819 -537936389 -67143817 -14743</internalNodes>
          <leafValues>
            -1.9361202418804169e-01 1.7285472154617310e-01</leafValues></_>
        <_>
          <internalNodes>
            0 -1 618 -930428911 -156061928 -1075083401 -37302611
            -123764483 -1074024769 -130295585 740311104</internalNodes>
          <leafValues>
            -2.3201829195022583e-01 1.3765898346900940e-01</leafValues></_>
        <_>
          <internalNodes>
            0 -1 1341 -335548613 -1883505154 -16777417 -319882310 -19081
            -1890714625 -940608427 1173747188</internalNodes>
          <leafValues>
            -2.2152544558048248e-01 1.4620001614093781e-01</leafValues></_>
        <_>
          <internalNodes>
            0 -1 399 -571211777 -671105931 -815396350 1074506338
            -67110537 -832744589 -817019826 1249856007</internalNodes>
          <leafValues>
            -1.9333773851394653e-01 1.6213129460811615e-01</leafValues></_>
        <_>
          <internalNodes>
            0 -1 1053 -11733515 -13176939 -1073776705 -2322956
            -273678403 -33557073 -1073759745 -1078263141</internalNodes>
          <leafValues>
            -8.7788395583629608e-02 3.3922818303108215e-01</leafValues></_>
        <_>
          <internalNodes>
            0 -1 235 -287348937 786530236 -294193231 -487129424
            1439636805 -74219751 -271098300 1982916212</internalNodes>
          <leafValues>
            -2.5604462623596191e-01 1.1849048733711243e-01</leafValues></_>
        <_>
          <internalNodes>
            0 -1 1254 664768307 -1393106946 1073737461 -1630766612
            787201983 -1427197977 498070013 1291539676</internalNodes>
          <leafValues>
            -1.8111597001552582e-01 1.6489960253238678e-01</leafValues></_>
        <_>
          <internalNodes>
            0 -1 6 730771246 984264363 -1092948866 -3527134 1576887739
            -805570630 -578717864 -12259666</internalNodes>
          <leafValues>
            -1.6742420196533203e-01 1.7889803647994995e-01</leafValues></_>
        <_>
          <internalNodes>
            0 -1 524 459571200 -1682109915 -2270251 962528311 1866958756
            -9437737 -34154360 1002111531</internalNodes>
          <leafValues>
            -2.4675317108631134e-01 1.2048956751823425e-01</leafValues></_>
        <_>
          <internalNodes>
            0 -1 1133 -2070280171 -21185289 -1378561 -185024513
            -1074118336 -34635905 -18342660 -1157972551</internalNodes>
          <leafValues>
            -1.8349209427833557e-01 1.5853802859783173e-01</leafValues></_>
        <_>
          <internalNodes>
            0 -1 944 -364648665 11206007 -82053246 -87623694 1962894693
            1366326903 -357240846 -69407830</internalNodes>
          <leafValues>
            -1.7351318895816803e-01 1.6459773480892181e-01</leafValues></_>
        <_>
          <internalNodes>
            0 -1 1065 -1363494032 16306108 1073731057 -1073816779
            -1453960003 -1376912387 532639165 -1409332099</internalNodes>
          <leafValues>
            -1.9503420591354370e-01 1.4658387005329132e-01</leafValues></_>
        <_>
          <internalNodes>
            0 -1 191 -402653313 968822447 -319177001 993152567 -21684498
            -81561821 -620958268 2136145754</internalNodes>
          <leafValues>
            -1.4545667171478271e-01 1.9350327551364899e-01</leafValues></_>
        <_>
          <internalNodes>
            0 -1 286 2085414622 749579436 716068204 804227720 1413852550
            1609776127 76432804 732915711</internalNodes>
          <leafValues>
            -2.2620137035846710e-01 1.1943768709897995e-01</leafValues></_>
        <_>
          <internalNodes>
            0 -1 1241 530259735 1001826103 -1115981976 -521764926
            1601400181 -1392525377 -877660528 -1057294604</internalNodes>
          <leafValues>
            -1.9619689881801605e-01 1.3042680919170380e-01</leafValues></_>
        <_>
          <internalNodes>
            0 -1 871 -185411084 372702615 -268473672 503053036 355436796
            -2002759232 767492346 166163051</internalNodes>
          <leafValues>
            -1.5488658845424652e-01 1.6813993453979492e-01</leafValues></_>
        <_>
          <internalNodes>
            0 -1 184 2111821447 -327163985 -84418949 -2106266129
            -721453714 2137782791 -671226286 2095906812</internalNodes>
          <leafValues>
            -1.9310879707336426e-01 1.3368783891201019e-01</leafValues></_>
        <_>
          <internalNodes>
            0 -1 1347 -939832761 1604288127 -147161642 1758911999
            1976500752 -8448993 -179152035 1916984443</internalNodes>
          <leafValues>
            -1.7730319499969482e-01 1.4438587427139282e-01</leafValues></_>
        <_>
          <internalNodes>
            0 -1 547 -797585802 1434297372 -457954795 -774901794
            1963248274 -1938566991 -780763206 2132791546</internalNodes>
          <leafValues>
            -1.8374912440776825e-01 1.4241132140159607e-01</leafValues></_>
        <_>
          <internalNodes>
            0 -1 1025 1792003490 44235658 -1962935772 1492250622
            1425212684 2112184281 2079813261 -386602556</internalNodes>
          <leafValues>
            -2.2799463570117950e-01 1.1216177046298981e-01</leafValues></_>
        <_>
          <internalNodes>
            0 -1 879 -823086640 -3735632 -134357508 -4794882 -1507017303
            -621477897 -1610968144 -1078786630</internalNodes>
          <leafValues>
            -1.3272377848625183e-01 1.8912696838378906e-01</leafValues></_>
        <_>
          <internalNodes>
            0 -1 414 1996487926 -1058211330 -1543606427 -406847889
            -285755564 1927806453 1047999835 1811938971</internalNodes>
          <leafValues>
            -1.8574792146682739e-01 1.4909458160400391e-01</leafValues></_>
        <_>
          <internalNodes>
            0 -1 1318 2107579963 -290456245 2113879857 -1413480454
            1731196915 -1966232901 1574925444 1424868508</internalNodes>
          <leafValues>
            -1.7735317349433899e-01 1.4783799648284912e-01</leafValues></_>
        <_>
          <internalNodes>
            0 -1 891 -1963064207 -553750659 -17371203 1006266277
            -1443074252 -1090675073 -671253392 -1158517448</internalNodes>
          <leafValues>
            -1.9647482037544250e-01 1.3164326548576355e-01</leafValues></_>
        <_>
          <internalNodes>
            0 -1 1172 -1359016945 -897687683 -2372609 -1565709505
            1542145908 -21061810 -135791532 1986731871</internalNodes>
          <leafValues>
            -2.0211605727672577e-01 1.2275906652212143e-01</leafValues></_>
        <_>
          <internalNodes>
            0 -1 935 1589772170 891084705 -151295440 -572210588
            1986473725 783776178 1181056254 -53058074</internalNodes>
          <leafValues>
            -1.4108911156654358e-01 1.7745682597160339e-01</leafValues></_>
        <_>
          <internalNodes>
            0 -1 917 323861426 1347483829 233615120 575147593 -304799200
            1530880823 664998667 520041663</internalNodes>
          <leafValues>
            -2.2129186987876892e-01 1.1396373808383942e-01</leafValues></_>
        <_>
          <internalNodes>
            0 -1 102 -1359216713 686225134 -1209024752 1795144696
            134016551 2079325695 1945565026 1307546980</internalNodes>
          <leafValues>
            -2.0244008302688599e-01 1.2032861262559891e-01</leafValues></_>
        <_>
          <internalNodes>
            0 -1 655 1669327490 829859447 -236001247 -17571872
            1442653414 1072921311 1684762576 1440343799</internalNodes>
          <leafValues>
            -2.0225095748901367e-01 1.2000780552625656e-01</leafValues></_>
        <_>
          <internalNodes>
            0 -1 222 -1897616816 15605874 586006333 652184313
            -1129835775 -560179209 -200394827 2076917726</internalNodes>
          <leafValues>
            -2.3906520009040833e-01 1.0161953419446945e-01</leafValues></_>
        <_>
          <internalNodes>
            0 -1 1177 -889321275 -168898601 -269487105 1239375610
            -1159164747 2109570521 -318799912 175259499</internalNodes>
          <leafValues>
            -1.7008884251117706e-01 1.4056058228015900e-01</leafValues></_>
        <_>
          <internalNodes>
            0 -1 615 -1431657181 713965422 -8409135 -470881418
            -1879233947 -1913729 1845491157 -1344784627</internalNodes>
          <leafValues>
            -1.8638245761394501e-01 1.2767185270786285e-01</leafValues></_>
        <_>
          <internalNodes>
            0 -1 948 -1406669309 1076952574 -387055902 -253122832
            1777812565 -600810141 -20521760 -1060661264</internalNodes>
          <leafValues>
            -1.8577630817890167e-01 1.2719938158988953e-01</leafValues></_>
        <_>
          <internalNodes>
            0 -1 807 383723194 -546984281 799407935 311355054 -566466807
            -6689833 708834857 305892494</internalNodes>
          <leafValues>
            -2.0315188169479370e-01 1.2133461236953735e-01</leafValues></_>
        <_>
          <internalNodes>
            0 -1 219 -64305483 -21696850 2130074907 -16765168 2071813817
            1572468469 2130658555 1106212471</internalNodes>
          <leafValues>
            -1.4482438564300537e-01 1.7315573990345001e-01</leafValues></_>
        <_>
          <internalNodes>
            0 -1 155 238234787 713729970 -1327317 -856773952 -41953289
            1705439727 1789392 1153848540</internalNodes>
          <leafValues>
            -2.5017800927162170e-01 9.9189899861812592e-02</leafValues></_>
        <_>
          <internalNodes>
            0 -1 1329 259735343 -1967333690 1323692019 -890899722
            234862511 804614126 937389565 250535373</internalNodes>
          <leafValues>
            -1.7579405009746552e-01 1.3117279112339020e-01</leafValues></_>
        <_>
          <internalNodes>
            0 -1 1013 -729817344 278265822 -1535890380 1985925110
            1672445186 343046676 670355246 877723436</internalNodes>
          <leafValues>
            -2.6053783297538757e-01 9.0033195912837982e-02</leafValues></_>
        <_>
          <internalNodes>
            0 -1 1190 268225969 -1426411539 -1885405227 232353737
            1307264156 -1905000476 232626064 14214129</internalNodes>
          <leafValues>
            -1.7654550075531006e-01 1.3669544458389282e-01</leafValues></_>
        <_>
          <internalNodes>
            0 -1 1048 -328480640 1221115180 -1212412007 -1400062876
            -1243718619 1681406880 1643727424 9433746</internalNodes>
          <leafValues>
            -2.7147212624549866e-01 8.9833170175552368e-02</leafValues></_>
        <_>
          <internalNodes>
            0 -1 190 -2101533091 1006595917 2129847971 -797812742
            -588170979 -278431948 -2313020 1416691312</internalNodes>
          <leafValues>
            -2.1941713988780975e-01 1.0756374150514603e-01</leafValues></_>
        <_>
          <internalNodes>
            0 -1 669 -76030978 1431385242 501923322 -549239182
            -1068460384 -1974080665 966818312 184631819</internalNodes>
          <leafValues>
            -1.6042470932006836e-01 1.4754138886928558e-01</leafValues></_>
        <_>
          <internalNodes>
            0 -1 73 1850893834 35712674 848087680 539014880 1952666692
            88217506 -117734332 1078430743</internalNodes>
          <leafValues>
            -4.7534027695655823e-01 4.9442157149314880e-02</leafValues></_>
        <_>
          <internalNodes>
            0 -1 973 522730981 -84144308 -1343275023 -160793224
            -1934574588 -100945996 -35014661 -1431436092</internalNodes>
          <leafValues>
            -1.6313856840133667e-01 1.4102025330066681e-01</leafValues></_>
        <_>
          <internalNodes>
            0 -1 1338 954173219 702119805 1744238754 -56465722
            -809535690 210088303 -314284 1366489588</internalNodes>
          <leafValues>
            -2.3593452572822571e-01 9.7179152071475983e-02</leafValues></_>
        <_>
          <internalNodes>
            0 -1 626 -232331648 -1330862155 1811877621 2032904929
            -465664795 -33619977 -92943414 712238082</internalNodes>
          <leafValues>
            -1.6192653775215149e-01 1.4738282561302185e-01</leafValues></_>
        <_>
          <internalNodes>
            0 -1 37 1826008831 217869054 -1346236749 -2014158248
            1391146845 131817307 399274174 1474939400</internalNodes>
          <leafValues>
            -1.8266910314559937e-01 1.2675529718399048e-01</leafValues></_>
        <_>
          <internalNodes>
            0 -1 866 -966359196 -705032326 -336158726 -1897910302
            736662276 1870296419 -690524 -1380839173</internalNodes>
          <leafValues>
            -1.7945669591426849e-01 1.2609919905662537e-01</leafValues></_>
        <_>
          <internalNodes>
            0 -1 571 570623264 554761254 -855839116 -18427308 421426180
            -1547735065 1861682640 -731750972</internalNodes>
          <leafValues>
            -2.6406756043434143e-01 8.4150493144989014e-02</leafValues></_>
        <_>
          <internalNodes>
            0 -1 831 1347803866 -586882308 -2077848819 -1195392504
            206832052 -922785029 518383126 -1141663601</internalNodes>
          <leafValues>
            -1.5338826179504395e-01 1.4344519376754761e-01</leafValues></_>
        <_>
          <internalNodes>
            0 -1 419 1056924645 -202687562 779050750 513990269
            -1212475580 -539509398 828013684 1462951608</internalNodes>
          <leafValues>
            -1.9419388473033905e-01 1.1523092538118362e-01</leafValues></_></weakClassifiers></_>
    <!-- stage 7 -->
    <_>
      <maxWeakCount>69</maxWeakCount>
      <stageThreshold>-2.1235344409942627e+00</stageThreshold>
      <weakClassifiers>
        <_>
          <internalNodes>
            0 -1 436 -17409 -20481 -1201413 -21761 -16449 -16385 -21829
            -21829</internalNodes>
          <leafValues>
            -6.4710748195648193e-01 4.2795133776962757e-04</leafValues></_>
        <_>
          <internalNodes>
            0 -1 17 -10 -83903745 -189333516 -8423425 -69208073 -16385
            -4718593 -4195329</internalNodes>
          <leafValues>
            -2.7688172459602356e-01 2.3545967042446136e-01</leafValues></_>
        <_>
          <internalNodes>
            0 -1 983 -26935435 -27328515 -3 -327682 -11 -131137 -262148
            -328472</internalNodes>
          <leafValues>
            -1.8798147141933441e-01 2.9366090893745422e-01</leafValues></_>
        <_>
          <internalNodes>
            0 -1 465 -263127088 1901426517 854621489 1976793045
            1968504309 -183107600 938999711 -1029</internalNodes>
          <leafValues>
            -2.7898588776588440e-01 1.9345661997795105e-01</leafValues></_>
        <_>
          <internalNodes>
            0 -1 263 -572525586 -356322578 -302023729 -282208849
            -218103996 1144109926 -4199089 1332734799</internalNodes>
          <leafValues>
            -2.8285124897956848e-01 1.5324656665325165e-01</leafValues></_>
        <_>
          <internalNodes>
            0 -1 1096 1087438838 -1066092556 2012979060 -1917060844
            -725289792 -34210889 -72630017 -302252549</internalNodes>
          <leafValues>
            -2.0704203844070435e-01 1.9378258287906647e-01</leafValues></_>
        <_>
          <internalNodes>
            0 -1 1331 -1085665 -136324609 -83887937 -521143557 -43195
            2137947755 -3162304 2004352891</internalNodes>
          <leafValues>
            -1.8830882012844086e-01 2.1223981678485870e-01</leafValues></_>
        <_>
          <internalNodes>
            0 -1 170 -555745538 1890647798 -356073860 -1341066502
            -546505352 1431585872 -10487172 -84422945</internalNodes>
          <leafValues>
            -2.3193669319152832e-01 1.5335780382156372e-01</leafValues></_>
        <_>
          <internalNodes>
            0 -1 908 -297612283 -570953937 -134217729 -3313 -813699669
            -262401 -285216769 -387194617</internalNodes>
          <leafValues>
            -1.0966534167528152e-01 2.9292750358581543e-01</leafValues></_>
        <_>
          <internalNodes>
            0 -1 758 1299705771 16894487 -1494750560 -571998214
            1156519935 54360589 -302186500 -590494473</internalNodes>
          <leafValues>
            -1.8774342536926270e-01 1.7534704506397247e-01</leafValues></_>
        <_>
          <internalNodes>
            0 -1 487 -1360040154 -291045386 -16846850 -16847106
            771700725 -281051161 -486578908 -587795340</internalNodes>
          <leafValues>
            -2.4223022162914276e-01 1.2363893538713455e-01</leafValues></_>
        <_>
          <internalNodes>
            0 -1 601 916405111 2143252327 -1471304481 1073379199
            -25273587 -3255513 -458882 993029936</internalNodes>
          <leafValues>
            -1.9832897186279297e-01 1.5025103092193604e-01</leafValues></_>
        <_>
          <internalNodes>
            0 -1 1286 -1 -2129953 -167772173 -12583937 -1142952001
            -889455105 -134219787 -536870914</internalNodes>
          <leafValues>
            -9.1099925339221954e-02 3.3211645483970642e-01</leafValues></_>
        <_>
          <internalNodes>
            0 -1 883 -256844560 -553892137 -134668801 -1153030
            -1506607727 -1081345 -1074037025 -1413804885</internalNodes>
          <leafValues>
            -1.2425897270441055e-01 2.3507244884967804e-01</leafValues></_>
        <_>
          <internalNodes>
            0 -1 188 -134218001 -25165825 -353665412 -260382738
            -134217977 -344981633 -134291756 1961950940</internalNodes>
          <leafValues>
            -1.7695523798465729e-01 1.6476988792419434e-01</leafValues></_>
        <_>
          <internalNodes>
            0 -1 695 -833946158 -94490211 981400441 2074224870
            -422250576 -91162889 1755561914 731058739</internalNodes>
          <leafValues>
            -1.6240102052688599e-01 1.7333017289638519e-01</leafValues></_>
        <_>
          <internalNodes>
            0 -1 808 -286292179 -293667361 -622067857 -528564481
            -542147243 -16929 -100671932 -5382465</internalNodes>
          <leafValues>
            -1.9942104816436768e-01 1.4795769751071930e-01</leafValues></_>
        <_>
          <internalNodes>
            0 -1 1147 742018743 852776185 -1129460620 816115692
            2147437645 -16819428 -1136722188 -85401640</internalNodes>
          <leafValues>
            -2.0495606958866119e-01 1.3062101602554321e-01</leafValues></_>
        <_>
          <internalNodes>
            0 -1 436 1148481202 1093137509 782007063 7162792 1477082057
            -18939139 1082478927 189749582</internalNodes>
          <leafValues>
            -2.0948852598667145e-01 1.2704806029796600e-01</leafValues></_>
        <_>
          <internalNodes>
            0 -1 679 -60774640 -44810980 -872542723 -1179994537
            -631985676 -124216044 -333390648 -85767429</internalNodes>
          <leafValues>
            -1.4356371760368347e-01 1.8332071602344513e-01</leafValues></_>
        <_>
          <internalNodes>
            0 -1 198 -1494273157 237957530 -1189085853 -50332179
            -4194317 -270291721 -1245718729 1600124396</internalNodes>
          <leafValues>
            -1.7180138826370239e-01 1.5267601609230042e-01</leafValues></_>
        <_>
          <internalNodes>
            0 -1 932 -731908224 1346696566 -1415009227 1993661424
            1474706980 901238742 767898235 570031948</internalNodes>
          <leafValues>
            -2.4219335615634918e-01 1.0819346457719803e-01</leafValues></_>
        <_>
          <internalNodes>
            0 -1 833 1594941339 808492843 -74948835 2072702880
            1435463609 1308254199 1336438412 1304904334</internalNodes>
          <leafValues>
            -1.6596393287181854e-01 1.5499192476272583e-01</leafValues></_>
        <_>
          <internalNodes>
            0 -1 1337 805300999 778727919 2129079586 778204846
            -1476429033 1233125358 1289692244 1145108468</internalNodes>
          <leafValues>
            -3.0694782733917236e-01 8.1838712096214294e-02</leafValues></_>
        <_>
          <internalNodes>
            0 -1 537 606732560 1061030070 -809535493 264118584
            1192646820 -1080067139 653152764 246874660</internalNodes>
          <leafValues>
            -4.0802323818206787e-01 6.0520786792039871e-02</leafValues></_>
        <_>
          <internalNodes>
            0 -1 246 1852663407 -1493176449 -184641990 1624955374
            389900129 -595599545 -738517916 1962590836</internalNodes>
          <leafValues>
            -2.4662096798419952e-01 9.4944350421428680e-02</leafValues></_>
        <_>
          <internalNodes>
            0 -1 453 2099375842 -203692256 -320143818 -282198173
            503252356 1069186814 1285966048 784154239</internalNodes>
          <leafValues>
            -1.8276901543140411e-01 1.3428774476051331e-01</leafValues></_>
        <_>
          <internalNodes>
            0 -1 7 207007386 271230174 -56746184 528089816 1618419579
            1931579253 -143064280 -8528034</internalNodes>
          <leafValues>
            -1.9715902209281921e-01 1.2339850515127182e-01</leafValues></_>
        <_>
          <internalNodes>
            0 -1 642 -556012098 1280701472 -932124044 -1395790881
            -732891950 426331637 -799546501 1581235954</internalNodes>
          <leafValues>
            -1.4949214458465576e-01 1.6993303596973419e-01</leafValues></_>
        <_>
          <internalNodes>
            0 -1 1200 682241536 215365021 -1132576972 1894841342
            1962857540 -322143457 -67436588 -1195709516</internalNodes>
          <leafValues>
            -2.4444299936294556e-01 9.8799854516983032e-02</leafValues></_>
        <_>
          <internalNodes>
            0 -1 89 1140821623 -203428545 -285688938 855829367
            -536898906 -1351131784 -539646216 2070150935</internalNodes>
          <leafValues>
            -1.3000063598155975e-01 1.8646471202373505e-01</leafValues></_>
        <_>
          <internalNodes>
            0 -1 964 79490132 -1667100880 2062492369 1073282717
            -1400082536 -1381210393 -478309418 -1342235717</internalNodes>
          <leafValues>
            -1.4008846879005432e-01 1.7229293286800385e-01</leafValues></_>
        <_>
          <internalNodes>
            0 -1 769 -367040734 1152283403 -54628491 -252133421
            -458525388 11563893 -1133158384 -1072503724</internalNodes>
          <leafValues>
            -2.2616836428642273e-01 1.0386524349451065e-01</leafValues></_>
        <_>
          <internalNodes>
            0 -1 693 -547361281 -416289484 1873734952 1837291200
            -4427661 -1002963471 1282364739 -548932957</internalNodes>
          <leafValues>
            -1.4315982162952423e-01 1.5993724763393402e-01</leafValues></_>
        <_>
          <internalNodes>
            0 -1 1127 934558609 -1884670220 -1344864261 2102452216
            -109895761 -1108381729 -1410073411 229596408</internalNodes>
          <leafValues>
            -1.5699191391468048e-01 1.4921852946281433e-01</leafValues></_>
        <_>
          <internalNodes>
            0 -1 617 -1441757167 -1398362464 -268503751 -4296720
            -1543762499 -1665411201 -554306067 -1615310851</internalNodes>
          <leafValues>
            -1.5696649253368378e-01 1.4691114425659180e-01</leafValues></_>
        <_>
          <internalNodes>
            0 -1 738 -539627278 411566728 -1494810022 1928794493
            1732301708 -348262503 -386619397 934225582</internalNodes>
          <leafValues>
            -1.6236039996147156e-01 1.4140857756137848e-01</leafValues></_>
        <_>
          <internalNodes>
            0 -1 1058 682816516 -727253158 -1091056403 1605541718
            -1968521812 -1629562889 249476069 -1413539686</internalNodes>
          <leafValues>
            -1.4206647872924805e-01 1.5812151134014130e-01</leafValues></_>
        <_>
          <internalNodes>
            0 -1 1283 -272896333 -2008023057 -1359036304 -1026392390
            247436599 788364527 2013233328 2096952820</internalNodes>
          <leafValues>
            -2.0169097185134888e-01 1.1524668335914612e-01</leafValues></_>
        <_>
          <internalNodes>
            0 -1 30 -806629393 720248812 2139093857 -292637981
            -201525281 1843396591 520086775 1474295279</internalNodes>
          <leafValues>
            -1.4280790090560913e-01 1.5862362086772919e-01</leafValues></_>
        <_>
          <internalNodes>
            0 -1 1187 -941634559 1367204637 -2047596627 262471321
            1642026245 -396124293 -1930039672 -436744276</internalNodes>
          <leafValues>
            -1.5573413670063019e-01 1.4707064628601074e-01</leafValues></_>
        <_>
          <internalNodes>
            0 -1 779 -101191682 1508681649 -53043632 -1145998166
            494147061 -1448731362 -906670342 158822443</internalNodes>
          <leafValues>
            -1.4344061911106110e-01 1.5853393077850342e-01</leafValues></_>
        <_>
          <internalNodes>
            0 -1 743 -750522449 1500900851 2142501867 -1110706458
            1635112173 -522123419 -201757207 -69732737</internalNodes>
          <leafValues>
            -9.3118600547313690e-02 2.4335891008377075e-01</leafValues></_>
        <_>
          <internalNodes>
            0 -1 1255 -1964002461 -1355178086 -178390553 -25232264
            -1787108449 -823201957 738191101 1308509277</internalNodes>
          <leafValues>
            -1.5175344049930573e-01 1.4897856116294861e-01</leafValues></_>
        <_>
          <internalNodes>
            0 -1 341 -1499058429 -1395728833 -537952279 -421254659
            -1747948675 1808793582 734852913 1339354352</internalNodes>
          <leafValues>
            -2.3826010525226593e-01 9.4770170748233795e-02</leafValues></_>
        <_>
          <internalNodes>
            0 -1 218 -366049785 931835586 -824280041 -559658352
            -934381577 -643366913 903099645 1969514101</internalNodes>
          <leafValues>
            -1.6999159753322601e-01 1.2936885654926300e-01</leafValues></_>
        <_>
          <internalNodes>
            0 -1 330 -572017917 1154619967 1585072862 34023147
            1307813445 1802927605 -290141108 -598225189</internalNodes>
          <leafValues>
            -1.6531147062778473e-01 1.3341118395328522e-01</leafValues></_>
        <_>
          <internalNodes>
            0 -1 634 1564598432 361816081 -572204147 901089049
            1350058173 1073049069 2038270441 930816455</internalNodes>
          <leafValues>
            -1.8773776292800903e-01 1.2092828750610352e-01</leafValues></_>
        <_>
          <internalNodes>
            0 -1 1053 -187386384 -122391151 -1094719755 -1258426960
            -861366399 -1413810783 -1482837576 -1413611352</internalNodes>
          <leafValues>
            -1.4302632212638855e-01 1.6134214401245117e-01</leafValues></_>
        <_>
          <internalNodes>
            0 -1 343 -311057651 250540894 -203564569 -996511783
            1334671957 266271487 2093700678 -651605017</internalNodes>
          <leafValues>
            -2.1675576269626617e-01 9.9884934723377228e-02</leafValues></_>
        <_>
          <internalNodes>
            0 -1 792 82969716 -50718882 -1090883841 1004736502
            -1020649484 -43169 -1411494407 -1145421637</internalNodes>
          <leafValues>
            -1.3767659664154053e-01 1.6113215684890747e-01</leafValues></_>
        <_>
          <internalNodes>
            0 -1 92 199190581 628040775 1656481807 985149183 371075347
            1280277341 -85578174 1982920244</internalNodes>
          <leafValues>
            -2.4359507858753204e-01 9.0451471507549286e-02</leafValues></_>
        <_>
          <internalNodes>
            0 -1 955 -901855612 1614870500 -1352405506 -504837550
            788493156 573600036 -172540432 -1815935854</internalNodes>
          <leafValues>
            -1.8419393897056580e-01 1.1546994000673294e-01</leafValues></_>
        <_>
          <internalNodes>
            0 -1 1001 -892195696 -42984175 -117998089 -1175573051
            -609694576 -539848763 -1368312900 -1443999455</internalNodes>
          <leafValues>
            -1.5151216089725494e-01 1.4268632233142853e-01</leafValues></_>
        <_>
          <internalNodes>
            0 -1 1375 2079305479 -1884356625 -153891024 -432281639
            1456891719 535748430 1728034676 1139206034</internalNodes>
          <leafValues>
            -1.9901566207408905e-01 1.1032542586326599e-01</leafValues></_>
        <_>
          <internalNodes>
            0 -1 705 721308341 -554232046 788330431 934299261 -268553164
            -814252233 -1073836684 -96832846</internalNodes>
          <leafValues>
            -1.5784384310245514e-01 1.3606509566307068e-01</leafValues></_>
        <_>
          <internalNodes>
            0 -1 406 -262186 -86081646 2145778527 -1484882035 -588320528
            -186551101 2078253034 1609276863</internalNodes>
          <leafValues>
            -1.1082299053668976e-01 1.9499187171459198e-01</leafValues></_>
        <_>
          <internalNodes>
            0 -1 396 242469435 628521853 749490270 -1887503830
            1594900780 -671148043 367267068 2080038056</internalNodes>
          <leafValues>
            -1.7504009604454041e-01 1.2380235642194748e-01</leafValues></_>
        <_>
          <internalNodes>
            0 -1 830 1547758474 1493367728 -1080562437 398901156
            1816412347 1072711671 1967451818 926664378</internalNodes>
          <leafValues>
            -1.6177792847156525e-01 1.3500329852104187e-01</leafValues></_>
        <_>
          <internalNodes>
            0 -1 1322 1283285559 1906571515 -65344643 -1610694816
            1709009247 -938052117 288964845 1221391565</internalNodes>
          <leafValues>
            -1.5046699345111847e-01 1.4448057115077972e-01</leafValues></_>
        <_>
          <internalNodes>
            0 -1 1105 1651500578 1405255582 -1095846000 1924055022
            1415795788 1390900095 -227280652 -1015874716</internalNodes>
          <leafValues>
            -2.1840962767601013e-01 1.0046592354774475e-01</leafValues></_>
        <_>
          <internalNodes>
            0 -1 1036 159234622 744531550 1596435506 -542328642
            637356512 -1932876660 91189616 -871105134</internalNodes>
          <leafValues>
            -1.9158935546875000e-01 1.1199268698692322e-01</leafValues></_>
        <_>
          <internalNodes>
            0 -1 1135 -184893296 1975249593 -285738565 1332689651
            -855926380 2037642835 -454112040 -1936130521</internalNodes>
          <leafValues>
            -1.3745576143264771e-01 1.5868087112903595e-01</leafValues></_>
        <_>
          <internalNodes>
            0 -1 41 720653572 175792342 1723509033 -1410367565
            1923117312 1150382450 -1018497706 1807637428</internalNodes>
          <leafValues>
            -3.3081090450286865e-01 6.5939694643020630e-02</leafValues></_>
        <_>
          <internalNodes>
            0 -1 1115 1142343444 1009811040 1549949644 -1292728992
            1458901657 -1399622348 -1637179552 -1431380176</internalNodes>
          <leafValues>
            -2.0251709222793579e-01 1.0729235410690308e-01</leafValues></_>
        <_>
          <internalNodes>
            0 -1 46 -10817857 1940139491 -189248487 -3528958 1878884350
            -1368524817 -134777121 -44763612</internalNodes>
          <leafValues>
            -8.9241415262222290e-02 2.4100829660892487e-01</leafValues></_>
        <_>
          <internalNodes>
            0 -1 345 242688514 -867319578 -1967600100 -797136248
            1598842498 1767435901 1426096384 285250730</internalNodes>
          <leafValues>
            -2.3281872272491455e-01 9.1996356844902039e-02</leafValues></_>
        <_>
          <internalNodes>
            0 -1 1122 -1576343263 -1499162573 -823152271 -1501364654
            489667703 -2000755033 -2134934107 -1900099204</internalNodes>
          <leafValues>
            -1.8794673681259155e-01 1.1346271634101868e-01</leafValues></_>
        <_>
          <internalNodes>
            0 -1 313 2085039310 2050670063 -1191395404 -688226614
            1987338208 1033817087 -212442010 -520233354</internalNodes>
          <leafValues>
            -1.7193426191806793e-01 1.2037399411201477e-01</leafValues></_></weakClassifiers></_>
    <!-- stage 8 -->
    <_>
      <maxWeakCount>78</maxWeakCount>
      <stageThreshold>-2.1139774322509766e+00</stageThreshold>
      <weakClassifiers>
        <_>
          <internalNodes>
            0 -1 364 -17409 -20641 -33707077 -21765 -1361134657
            -268584449 -1342588229 -17409</internalNodes>
          <leafValues>
            -6.2367081642150879e-01 6.4451314508914948e-02</leafValues></_>
        <_>
          <internalNodes>
            0 -1 623 -570434049 -538976291 800702267 -1073742341
            -33555521 -397825 536415003 800845759</internalNodes>
          <leafValues>
            -2.9102295637130737e-01 1.8864992260932922e-01</leafValues></_>
        <_>
          <internalNodes>
            0 -1 981 -16973836 -42414084 -134217731 -5048321 -537133571
            -33554465 -515 -1</internalNodes>
          <leafValues>
            -1.5887133777141571e-01 3.2213449478149414e-01</leafValues></_>
        <_>
          <internalNodes>
            0 -1 946 -8388609 -269565986 -13455472 -821375366 -433652774
            -1375567810 -714881584 -821893086</internalNodes>
          <leafValues>
            -2.0416073501110077e-01 1.9099223613739014e-01</leafValues></_>
        <_>
          <internalNodes>
            0 -1 14 1876946943 -268568849 -288395505 267849479 -18907145
            -1 -274727153 -32897</internalNodes>
          <leafValues>
            -1.7002932727336884e-01 2.2830823063850403e-01</leafValues></_>
        <_>
          <internalNodes>
            0 -1 189 -206192190 -320316065 -271192305 -271589585
            -203686076 1349638646 2009722703 1333788543</internalNodes>
          <leafValues>
            -2.2878621518611908e-01 1.7914275825023651e-01</leafValues></_>
        <_>
          <internalNodes>
            0 -1 418 -16778241 -36993 -554838049 -30214145 -84430850
            -8421507 -66050 -15532054</internalNodes>
          <leafValues>
            -1.1964172869920731e-01 3.0538812279701233e-01</leafValues></_>
        <_>
          <internalNodes>
            0 -1 1350 -134258929 -83891233 -154209638 1895823870 -32956
            2139092822 -4457136 1937506175</internalNodes>
          <leafValues>
            -2.2329983115196228e-01 1.5803001821041107e-01</leafValues></_>
        <_>
          <internalNodes>
            0 -1 879 -24315916 -123408 -42017283 -649130 -814957580
            -1090920451 -4675140 -1413873608</internalNodes>
          <leafValues>
            -1.6129434108734131e-01 2.0247107744216919e-01</leafValues></_>
        <_>
          <internalNodes>
            0 -1 475 1949811714 555939130 -152341194 -16842823
            1347302420 250478519 -152570493 -8781907</internalNodes>
          <leafValues>
            -2.5118580460548401e-01 1.2118905037641525e-01</leafValues></_>
        <_>
          <internalNodes>
            0 -1 767 -572262418 -781123625 -59441164 -454775389
            -529138180 74512288 -254423190 -1518111294</internalNodes>
          <leafValues>
            -1.7083439230918884e-01 1.6829881072044373e-01</leafValues></_>
        <_>
          <internalNodes>
            0 -1 159 -1347688165 -1397818402 -1358974473 -856760536
            -692322505 1207943135 1707074770 1174394085</internalNodes>
          <leafValues>
            -2.1599124372005463e-01 1.3941155374050140e-01</leafValues></_>
        <_>
          <internalNodes>
            0 -1 1287 -77 -269491213 -543953481 -537593865 -1111491593
            -809505813 -704686603 -537141768</internalNodes>
          <leafValues>
            -1.2564097344875336e-01 2.3084239661693573e-01</leafValues></_>
        <_>
          <internalNodes>
            0 -1 721 -667235707 -216341521 -403710465 -550580978
            -547643441 -4198945 -17043489 -399359997</internalNodes>
          <leafValues>
            -1.3263565301895142e-01 2.0114074647426605e-01</leafValues></_>
        <_>
          <internalNodes>
            0 -1 519 1599022651 1701422295 1307966591 24109659
            1874867515 -4592137 1410224538 1000317578</internalNodes>
          <leafValues>
            -1.9195428490638733e-01 1.2877236306667328e-01</leafValues></_>
        <_>
          <internalNodes>
            0 -1 364 -1437569520 -1607569260 -848473500 -1453821136
            -784183728 -1871839969 -629652649 -1956229310</internalNodes>
          <leafValues>
            -1.8828381597995758e-01 1.3393333554267883e-01</leafValues></_>
        <_>
          <internalNodes>
            0 -1 493 -757792794 -423075984 1449059315 -270024791
            1733099328 1141174868 -538117265 1330640395</internalNodes>
          <leafValues>
            -1.8492829799652100e-01 1.4128337800502777e-01</leafValues></_>
        <_>
          <internalNodes>
            0 -1 118 -18415618 -85342746 -285970668 -1351341315
            1968566262 1895267303 1691607926 737762082</internalNodes>
          <leafValues>
            -1.8671485781669617e-01 1.3248506188392639e-01</leafValues></_>
        <_>
          <internalNodes>
            0 -1 986 -1359147243 -1359335685 -335842305 -1031881729
            -558764 -1082392721 -340299947 -1142186129</internalNodes>
          <leafValues>
            -1.7006441950798035e-01 1.4815948903560638e-01</leafValues></_>
        <_>
          <internalNodes>
            0 -1 1169 -1498269903 -2017922138 -1652652296 -1359822928
            1018157759 -1879834625 805002749 750439912</internalNodes>
          <leafValues>
            -1.9675658643245697e-01 1.2227747589349747e-01</leafValues></_>
        <_>
          <internalNodes>
            0 -1 1202 1223675650 -1429968092 -33625156 681603818
            1761483604 -1845584817 -910167312 -1338836336</internalNodes>
          <leafValues>
            -2.4842546880245209e-01 9.6848592162132263e-02</leafValues></_>
        <_>
          <internalNodes>
            0 -1 1000 421650226 878903147 -1210253603 -1254438390
            -202938694 -307237187 1806551723 1071596939</internalNodes>
          <leafValues>
            -1.7745673656463623e-01 1.3787677884101868e-01</leafValues></_>
        <_>
          <internalNodes>
            0 -1 259 -86040033 2067786547 -126812550 570618615
            -554021554 -63031761 1148375108 2032203860</internalNodes>
          <leafValues>
            -2.1176894009113312e-01 1.1491234600543976e-01</leafValues></_>
        <_>
          <internalNodes>
            0 -1 566 1400628742 287430087 -495007824 -173936262
            1899068063 624828943 -134742552 -707396410</internalNodes>
          <leafValues>
            -1.6000498831272125e-01 1.5276707708835602e-01</leafValues></_>
        <_>
          <internalNodes>
            0 -1 682 -134235042 -145999238 1315170338 235110834
            -104089254 -2011167902 1652495379 1257715</internalNodes>
          <leafValues>
            -2.1373327076435089e-01 1.0937369614839554e-01</leafValues></_>
        <_>
          <internalNodes>
            0 -1 1199 -1077955599 -1008735269 462417760 -303259650
            1164999555 -990136329 -731933440 -1059848198</internalNodes>
          <leafValues>
            -1.6258969902992249e-01 1.4451192319393158e-01</leafValues></_>
        <_>
          <internalNodes>
            0 -1 839 -151520625 816833967 2113855407 -1310332250
            1950845679 -1980336397 -252282936 -103323921</internalNodes>
          <leafValues>
            -1.0725619643926620e-01 2.0924703776836395e-01</leafValues></_>
        <_>
          <internalNodes>
            0 -1 340 762253043 -136369313 1459573659 2137546607
            668859399 -563512313 1451153024 2064709456</internalNodes>
          <leafValues>
            -1.7160697281360626e-01 1.2862011790275574e-01</leafValues></_>
        <_>
          <internalNodes>
            0 -1 973 -962005556 -704997392 -1644232709 -377622
            -1355629111 -2375691 -1075271686 -1414855505</internalNodes>
          <leafValues>
            -1.1005923897027969e-01 2.0484520494937897e-01</leafValues></_>
        <_>
          <internalNodes>
            0 -1 1212 804253195 19294767 -1513310046 1782640194
            158322511 1235427237 -136362576 1442096369</internalNodes>
          <leafValues>
            -2.4252934753894806e-01 9.0887963771820068e-02</leafValues></_>
        <_>
          <internalNodes>
